#pragma once
#include <cstdarg>
namespace Eloquent {
    namespace ML {
        namespace Port {
            class RandomForest {
                public:
                    /**
                    * Predict class for features vector
                    */
                    int predict(float *x) {
                        uint8_t votes[5] = { 0 };
                        // tree #1
                        if (x[1] <= -0.2205871967598796) {
                            if (x[11] <= -0.2962469644844532) {
                                if (x[19] <= 0.0628080666065216) {
                                    votes[3] += 1;
                                }

                                else {
                                    if (x[11] <= -1.06330406665802) {
                                        if (x[5] <= -0.48715390264987946) {
                                            votes[0] += 1;
                                        }

                                        else {
                                            votes[3] += 1;
                                        }
                                    }

                                    else {
                                        if (x[18] <= -2.0937552452087402) {
                                            votes[3] += 1;
                                        }

                                        else {
                                            votes[0] += 1;
                                        }
                                    }
                                }
                            }

                            else {
                                if (x[19] <= -0.2842782139778137) {
                                    if (x[6] <= -0.4437956213951111) {
                                        if (x[15] <= 0.35293859243392944) {
                                            votes[4] += 1;
                                        }

                                        else {
                                            votes[2] += 1;
                                        }
                                    }

                                    else {
                                        if (x[5] <= -0.4869164675474167) {
                                            votes[2] += 1;
                                        }

                                        else {
                                            votes[2] += 1;
                                        }
                                    }
                                }

                                else {
                                    votes[4] += 1;
                                }
                            }
                        }

                        else {
                            votes[1] += 1;
                        }

                        // tree #2
                        if (x[11] <= -0.2962469644844532) {
                            if (x[11] <= -1.0685752034187317) {
                                votes[3] += 1;
                            }

                            else {
                                if (x[17] <= 0.8507640063762665) {
                                    votes[0] += 1;
                                }

                                else {
                                    votes[3] += 1;
                                }
                            }
                        }

                        else {
                            if (x[1] <= -0.23031588178128004) {
                                if (x[1] <= -0.4447648674249649) {
                                    if (x[9] <= -0.28508879244327545) {
                                        if (x[10] <= 0.33240172266960144) {
                                            votes[2] += 1;
                                        }

                                        else {
                                            votes[4] += 1;
                                        }
                                    }

                                    else {
                                        if (x[11] <= 0.30601851642131805) {
                                            votes[4] += 1;
                                        }

                                        else {
                                            votes[4] += 1;
                                        }
                                    }
                                }

                                else {
                                    if (x[6] <= -0.4438948631286621) {
                                        votes[4] += 1;
                                    }

                                    else {
                                        votes[2] += 1;
                                    }
                                }
                            }

                            else {
                                votes[1] += 1;
                            }
                        }

                        // tree #3
                        if (x[17] <= 0.19380336999893188) {
                            if (x[6] <= -0.09767057001590729) {
                                if (x[6] <= -0.4438895732164383) {
                                    votes[4] += 1;
                                }

                                else {
                                    if (x[15] <= -0.37958646938204765) {
                                        if (x[16] <= -0.7896781265735626) {
                                            votes[3] += 1;
                                        }

                                        else {
                                            votes[0] += 1;
                                        }
                                    }

                                    else {
                                        if (x[16] <= -0.11659325286746025) {
                                            votes[2] += 1;
                                        }

                                        else {
                                            votes[4] += 1;
                                        }
                                    }
                                }
                            }

                            else {
                                votes[1] += 1;
                            }
                        }

                        else {
                            votes[3] += 1;
                        }

                        // tree #4
                        if (x[10] <= -0.51673224568367) {
                            if (x[12] <= -1.0237939953804016) {
                                votes[3] += 1;
                            }

                            else {
                                if (x[17] <= 0.8507640063762665) {
                                    votes[0] += 1;
                                }

                                else {
                                    votes[3] += 1;
                                }
                            }
                        }

                        else {
                            if (x[7] <= -0.06645385175943375) {
                                if (x[6] <= -0.44379033148288727) {
                                    if (x[12] <= 0.3002902567386627) {
                                        if (x[8] <= -0.25919240713119507) {
                                            votes[2] += 1;
                                        }

                                        else {
                                            votes[4] += 1;
                                        }
                                    }

                                    else {
                                        if (x[6] <= -0.44384391605854034) {
                                            votes[4] += 1;
                                        }

                                        else {
                                            votes[2] += 1;
                                        }
                                    }
                                }

                                else {
                                    if (x[2] <= -0.25627630576491356) {
                                        votes[2] += 1;
                                    }

                                    else {
                                        votes[1] += 1;
                                    }
                                }
                            }

                            else {
                                votes[1] += 1;
                            }
                        }

                        // tree #5
                        if (x[10] <= -0.51673224568367) {
                            if (x[11] <= -1.0685752034187317) {
                                votes[3] += 1;
                            }

                            else {
                                if (x[18] <= -1.6721857190132141) {
                                    if (x[4] <= -0.3435450792312622) {
                                        votes[3] += 1;
                                    }

                                    else {
                                        votes[0] += 1;
                                    }
                                }

                                else {
                                    votes[0] += 1;
                                }
                            }
                        }

                        else {
                            if (x[10] <= 1.1030519604682922) {
                                if (x[0] <= 0.5958380252122879) {
                                    if (x[18] <= -0.34725286066532135) {
                                        if (x[19] <= -0.4003578722476959) {
                                            votes[2] += 1;
                                        }

                                        else {
                                            votes[4] += 1;
                                        }
                                    }

                                    else {
                                        if (x[1] <= -0.4493952989578247) {
                                            votes[4] += 1;
                                        }

                                        else {
                                            votes[2] += 1;
                                        }
                                    }
                                }

                                else {
                                    votes[1] += 1;
                                }
                            }

                            else {
                                votes[1] += 1;
                            }
                        }

                        // tree #6
                        if (x[15] <= -0.49512874335050583) {
                            if (x[2] <= -0.442489355802536) {
                                votes[3] += 1;
                            }

                            else {
                                if (x[11] <= -1.0758458375930786) {
                                    votes[3] += 1;
                                }

                                else {
                                    if (x[8] <= -0.35951848328113556) {
                                        votes[3] += 1;
                                    }

                                    else {
                                        votes[0] += 1;
                                    }
                                }
                            }
                        }

                        else {
                            if (x[4] <= -0.2293657585978508) {
                                if (x[18] <= -0.34725286066532135) {
                                    if (x[2] <= -0.4411506652832031) {
                                        if (x[2] <= -0.44164878129959106) {
                                            votes[4] += 1;
                                        }

                                        else {
                                            votes[2] += 1;
                                        }
                                    }

                                    else {
                                        if (x[6] <= -0.4437645226716995) {
                                            votes[4] += 1;
                                        }

                                        else {
                                            votes[2] += 1;
                                        }
                                    }
                                }

                                else {
                                    if (x[5] <= 0.540569394826889) {
                                        if (x[11] <= 0.24030741304159164) {
                                            votes[4] += 1;
                                        }

                                        else {
                                            votes[2] += 1;
                                        }
                                    }

                                    else {
                                        votes[1] += 1;
                                    }
                                }
                            }

                            else {
                                votes[1] += 1;
                            }
                        }

                        // tree #7
                        if (x[11] <= -0.3004518337547779) {
                            if (x[17] <= 0.19380336999893188) {
                                if (x[16] <= -0.7896898984909058) {
                                    votes[3] += 1;
                                }

                                else {
                                    votes[0] += 1;
                                }
                            }

                            else {
                                votes[3] += 1;
                            }
                        }

                        else {
                            if (x[2] <= -0.25771308690309525) {
                                if (x[18] <= -0.34725286066532135) {
                                    if (x[10] <= 0.2847938537597656) {
                                        if (x[1] <= -0.4583068937063217) {
                                            votes[4] += 1;
                                        }

                                        else {
                                            votes[2] += 1;
                                        }
                                    }

                                    else {
                                        votes[4] += 1;
                                    }
                                }

                                else {
                                    if (x[1] <= -0.44932200014591217) {
                                        if (x[5] <= -0.4901802986860275) {
                                            votes[2] += 1;
                                        }

                                        else {
                                            votes[4] += 1;
                                        }
                                    }

                                    else {
                                        if (x[18] <= 0.9776800274848938) {
                                            votes[2] += 1;
                                        }

                                        else {
                                            votes[4] += 1;
                                        }
                                    }
                                }
                            }

                            else {
                                votes[1] += 1;
                            }
                        }

                        // tree #8
                        if (x[16] <= -0.6199739873409271) {
                            if (x[15] <= -1.0314596891403198) {
                                votes[3] += 1;
                            }

                            else {
                                if (x[18] <= -1.9130825400352478) {
                                    votes[3] += 1;
                                }

                                else {
                                    votes[0] += 1;
                                }
                            }
                        }

                        else {
                            if (x[12] <= 0.5855121612548828) {
                                if (x[18] <= -0.34725286066532135) {
                                    if (x[14] <= -0.5403744280338287) {
                                        votes[4] += 1;
                                    }

                                    else {
                                        if (x[11] <= 0.2471674606204033) {
                                            votes[4] += 1;
                                        }

                                        else {
                                            votes[2] += 1;
                                        }
                                    }
                                }

                                else {
                                    if (x[12] <= 0.17832515388727188) {
                                        if (x[9] <= -0.22831031680107117) {
                                            votes[2] += 1;
                                        }

                                        else {
                                            votes[4] += 1;
                                        }
                                    }

                                    else {
                                        if (x[11] <= 0.23673323541879654) {
                                            votes[4] += 1;
                                        }

                                        else {
                                            votes[2] += 1;
                                        }
                                    }
                                }
                            }

                            else {
                                if (x[1] <= -0.23285628855228424) {
                                    if (x[6] <= -0.44390079379081726) {
                                        votes[4] += 1;
                                    }

                                    else {
                                        votes[2] += 1;
                                    }
                                }

                                else {
                                    votes[1] += 1;
                                }
                            }
                        }

                        // tree #9
                        if (x[12] <= -0.5541754364967346) {
                            if (x[17] <= 0.19380336999893188) {
                                if (x[5] <= -0.48033900558948517) {
                                    if (x[16] <= -0.7909518778324127) {
                                        votes[3] += 1;
                                    }

                                    else {
                                        votes[0] += 1;
                                    }
                                }

                                else {
                                    votes[3] += 1;
                                }
                            }

                            else {
                                votes[3] += 1;
                            }
                        }

                        else {
                            if (x[0] <= 0.5571285635232925) {
                                if (x[6] <= -0.4437951445579529) {
                                    if (x[16] <= -0.1458154395222664) {
                                        if (x[12] <= 0.2981269359588623) {
                                            votes[4] += 1;
                                        }

                                        else {
                                            votes[2] += 1;
                                        }
                                    }

                                    else {
                                        if (x[6] <= -0.4437999278306961) {
                                            votes[4] += 1;
                                        }

                                        else {
                                            votes[4] += 1;
                                        }
                                    }
                                }

                                else {
                                    if (x[12] <= -0.26622482296079397) {
                                        votes[0] += 1;
                                    }

                                    else {
                                        if (x[14] <= -0.8941071033477783) {
                                            votes[2] += 1;
                                        }

                                        else {
                                            votes[2] += 1;
                                        }
                                    }
                                }
                            }

                            else {
                                votes[1] += 1;
                            }
                        }

                        // tree #10
                        if (x[15] <= -0.4948686435818672) {
                            if (x[15] <= -1.0501540899276733) {
                                votes[3] += 1;
                            }

                            else {
                                if (x[5] <= -0.4825090765953064) {
                                    votes[0] += 1;
                                }

                                else {
                                    if (x[19] <= 1.8702905178070068) {
                                        votes[0] += 1;
                                    }

                                    else {
                                        votes[3] += 1;
                                    }
                                }
                            }
                        }

                        else {
                            if (x[0] <= 0.5492188483476639) {
                                if (x[1] <= -0.44475166499614716) {
                                    if (x[4] <= -0.4799201786518097) {
                                        if (x[6] <= -0.44384539127349854) {
                                            votes[4] += 1;
                                        }

                                        else {
                                            votes[2] += 1;
                                        }
                                    }

                                    else {
                                        if (x[5] <= -0.49136751890182495) {
                                            votes[2] += 1;
                                        }

                                        else {
                                            votes[4] += 1;
                                        }
                                    }
                                }

                                else {
                                    if (x[15] <= 0.7215254604816437) {
                                        votes[2] += 1;
                                    }

                                    else {
                                        votes[4] += 1;
                                    }
                                }
                            }

                            else {
                                votes[1] += 1;
                            }
                        }

                        // return argmax of votes
                        uint8_t classIdx = 0;
                        float maxVotes = votes[0];

                        for (uint8_t i = 1; i < 5; i++) {
                            if (votes[i] > maxVotes) {
                                classIdx = i;
                                maxVotes = votes[i];
                            }
                        }

                        return classIdx;
                    }

                protected:
                };
            }
        }
    }